digraph Tree {
node [shape=box, style="filled, rounded", color="black", fontname=helvetica] ;
edge [fontname=helvetica] ;
0 [label=<X<SUB>9</SUB> &le; 6.5<br/>mae = 57058.322<br/>samples = 876<br/>value = 160000.0>, fillcolor="#f7d8c1"] ;
1 [label=<X<SUB>85</SUB> &le; 18.544<br/>mae = 28206.26<br/>samples = 547<br/>value = 136500.0>, fillcolor="#f8dfcd"] ;
0 -> 1 [labeldistance=2.5, labelangle=45, headlabel="True"] ;
2 [label=<X<SUB>86</SUB> &le; 8.03<br/>mae = 19305.787<br/>samples = 235<br/>value = 116000.0>, fillcolor="#fae6d8"] ;
1 -> 2 ;
3 [label=<X<SUB>27</SUB> &le; 0.5<br/>mae = 17201.016<br/>samples = 124<br/>value = 104100.0>, fillcolor="#fbeade"] ;
2 -> 3 ;
4 [label=<X<SUB>30</SUB> &le; 6.794<br/>mae = 16915.138<br/>samples = 29<br/>value = 85000.0>, fillcolor="#fcf0e8"] ;
3 -> 4 ;
5 [label=<mae = 5729.667<br/>samples = 3<br/>value = 39300.0>, fillcolor="#ffffff"] ;
4 -> 5 ;
6 [label=<mae = 13563.462<br/>samples = 26<br/>value = 90500.0>, fillcolor="#fceee5"] ;
4 -> 6 ;
7 [label=<X<SUB>10</SUB> &le; 2.807<br/>mae = 14806.179<br/>samples = 95<br/>value = 108000.0>, fillcolor="#fae9dc"] ;
3 -> 7 ;
8 [label=<mae = 8012.5<br/>samples = 8<br/>value = 80500.0>, fillcolor="#fcf2ea"] ;
7 -> 8 ;
9 [label=<mae = 13528.402<br/>samples = 87<br/>value = 109500.0>, fillcolor="#fae8db"] ;
7 -> 9 ;
10 [label=<X<SUB>42</SUB> &le; 415.0<br/>mae = 14636.991<br/>samples = 111<br/>value = 127500.0>, fillcolor="#f9e2d2"] ;
2 -> 10 ;
11 [label=<X<SUB>84</SUB> &le; 3910.0<br/>mae = 12195.246<br/>samples = 65<br/>value = 119900.0>, fillcolor="#fae5d6"] ;
10 -> 11 ;
12 [label=<mae = 6750.25<br/>samples = 16<br/>value = 110000.0>, fillcolor="#fae8db"] ;
11 -> 12 ;
13 [label=<mae = 11746.837<br/>samples = 49<br/>value = 125000.0>, fillcolor="#f9e3d3"] ;
11 -> 13 ;
14 [label=<X<SUB>84</SUB> &le; 3971.0<br/>mae = 12830.761<br/>samples = 46<br/>value = 138800.0>, fillcolor="#f8dfcc"] ;
10 -> 14 ;
15 [label=<mae = 13153.448<br/>samples = 29<br/>value = 132500.0>, fillcolor="#f9e1cf"] ;
14 -> 15 ;
16 [label=<mae = 6450.882<br/>samples = 17<br/>value = 145000.0>, fillcolor="#f8ddc9"] ;
14 -> 16 ;
17 [label=<X<SUB>87</SUB> &le; 2.25<br/>mae = 25492.122<br/>samples = 312<br/>value = 153950.0>, fillcolor="#f7dac4"] ;
1 -> 17 ;
18 [label=<X<SUB>36</SUB> &le; 0.46<br/>mae = 18901.449<br/>samples = 187<br/>value = 143000.0>, fillcolor="#f8ddca"] ;
17 -> 18 ;
19 [label=<X<SUB>84</SUB> &le; 3888.5<br/>mae = 14668.337<br/>samples = 104<br/>value = 138350.0>, fillcolor="#f8dfcc"] ;
18 -> 19 ;
20 [label=<mae = 11346.154<br/>samples = 13<br/>value = 117500.0>, fillcolor="#fae6d7"] ;
19 -> 20 ;
21 [label=<mae = 13141.835<br/>samples = 91<br/>value = 140000.0>, fillcolor="#f8decb"] ;
19 -> 21 ;
22 [label=<X<SUB>86</SUB> &le; 8.542<br/>mae = 20414.699<br/>samples = 83<br/>value = 155000.0>, fillcolor="#f7d9c4"] ;
18 -> 22 ;
23 [label=<mae = 16542.391<br/>samples = 46<br/>value = 145500.0>, fillcolor="#f8dcc9"] ;
22 -> 23 ;
24 [label=<mae = 19474.865<br/>samples = 37<br/>value = 165500.0>, fillcolor="#f7d6be"] ;
22 -> 24 ;
25 [label=<X<SUB>86</SUB> &le; 8.8<br/>mae = 25189.528<br/>samples = 125<br/>value = 176000.0>, fillcolor="#f6d2b9"] ;
17 -> 25 ;
26 [label=<X<SUB>84</SUB> &le; 3927.0<br/>mae = 18843.08<br/>samples = 88<br/>value = 173250.0>, fillcolor="#f6d3ba"] ;
25 -> 26 ;
27 [label=<mae = 19614.706<br/>samples = 17<br/>value = 135000.0>, fillcolor="#f9e0ce"] ;
26 -> 27 ;
28 [label=<mae = 13489.31<br/>samples = 71<br/>value = 175000.0>, fillcolor="#f6d3ba"] ;
26 -> 28 ;
29 [label=<X<SUB>10</SUB> &le; 2.807<br/>mae = 29354.054<br/>samples = 37<br/>value = 204000.0>, fillcolor="#f4c9ab"] ;
25 -> 29 ;
30 [label=<mae = 4100.0<br/>samples = 4<br/>value = 150000.0>, fillcolor="#f8dbc6"] ;
29 -> 30 ;
31 [label=<mae = 25712.121<br/>samples = 33<br/>value = 210000.0>, fillcolor="#f4c7a8"] ;
29 -> 31 ;
32 [label=<X<SUB>85</SUB> &le; 20.364<br/>mae = 59730.809<br/>samples = 329<br/>value = 235000.0>, fillcolor="#f2bf9b"] ;
0 -> 32 [labeldistance=2.5, labelangle=-45, headlabel="False"] ;
33 [label=<X<SUB>42</SUB> &le; 392.0<br/>mae = 26555.517<br/>samples = 145<br/>value = 188500.0>, fillcolor="#f5ceb3"] ;
32 -> 33 ;
34 [label=<X<SUB>39</SUB> &le; 1955.5<br/>mae = 16974.722<br/>samples = 18<br/>value = 144000.0>, fillcolor="#f8ddc9"] ;
33 -> 34 ;
35 [label=<X<SUB>85</SUB> &le; 19.106<br/>mae = 13905.0<br/>samples = 10<br/>value = 159000.0>, fillcolor="#f7d8c2"] ;
34 -> 35 ;
36 [label=<mae = 3200.0<br/>samples = 3<br/>value = 143000.0>, fillcolor="#f8ddca"] ;
35 -> 36 ;
37 [label=<mae = 11492.857<br/>samples = 7<br/>value = 164000.0>, fillcolor="#f7d6bf"] ;
35 -> 37 ;
38 [label=<X<SUB>5</SUB> &le; 3.5<br/>mae = 8686.875<br/>samples = 8<br/>value = 130000.0>, fillcolor="#f9e1d1"] ;
34 -> 38 ;
39 [label=<mae = 0.0<br/>samples = 1<br/>value = 159895.0>, fillcolor="#f7d8c1"] ;
38 -> 39 ;
40 [label=<mae = 5657.143<br/>samples = 7<br/>value = 130000.0>, fillcolor="#f9e1d1"] ;
38 -> 40 ;
41 [label=<X<SUB>30</SUB> &le; 7.77<br/>mae = 24246.417<br/>samples = 127<br/>value = 192000.0>, fillcolor="#f5cdb1"] ;
33 -> 41 ;
42 [label=<X<SUB>39</SUB> &le; 2007.5<br/>mae = 19012.811<br/>samples = 95<br/>value = 184900.0>, fillcolor="#f5d0b4"] ;
41 -> 42 ;
43 [label=<mae = 16670.43<br/>samples = 86<br/>value = 181567.0>, fillcolor="#f5d1b6"] ;
42 -> 43 ;
44 [label=<mae = 11640.0<br/>samples = 9<br/>value = 224500.0>, fillcolor="#f3c3a0"] ;
42 -> 44 ;
45 [label=<X<SUB>18</SUB> &le; 0.5<br/>mae = 23336.812<br/>samples = 32<br/>value = 224250.0>, fillcolor="#f3c3a0"] ;
41 -> 45 ;
46 [label=<mae = 18800.0<br/>samples = 2<br/>value = 148700.0>, fillcolor="#f8dbc7"] ;
45 -> 46 ;
47 [label=<mae = 19805.933<br/>samples = 30<br/>value = 226437.5>, fillcolor="#f2c29f"] ;
45 -> 47 ;
48 [label=<X<SUB>85</SUB> &le; 21.089<br/>mae = 55693.783<br/>samples = 184<br/>value = 280000.0>, fillcolor="#efb184"] ;
32 -> 48 ;
49 [label=<X<SUB>33</SUB> &le; 2.5<br/>mae = 26511.093<br/>samples = 86<br/>value = 249300.0>, fillcolor="#f1bb93"] ;
48 -> 49 ;
50 [label=<X<SUB>42</SUB> &le; 627.0<br/>mae = 23440.5<br/>samples = 70<br/>value = 239250.0>, fillcolor="#f2be99"] ;
49 -> 50 ;
51 [label=<mae = 23291.25<br/>samples = 40<br/>value = 232500.0>, fillcolor="#f2c09c"] ;
50 -> 51 ;
52 [label=<mae = 17454.3<br/>samples = 30<br/>value = 250000.0>, fillcolor="#f1ba93"] ;
50 -> 52 ;
53 [label=<X<SUB>42</SUB> &le; 782.5<br/>mae = 18450.688<br/>samples = 16<br/>value = 276500.0>, fillcolor="#efb286"] ;
49 -> 53 ;
54 [label=<mae = 8296.8<br/>samples = 10<br/>value = 269950.0>, fillcolor="#efb489"] ;
53 -> 54 ;
55 [label=<mae = 16542.833<br/>samples = 6<br/>value = 312750.0>, fillcolor="#eda673"] ;
53 -> 55 ;
56 [label=<X<SUB>9</SUB> &le; 8.5<br/>mae = 58388.939<br/>samples = 98<br/>value = 322000.0>, fillcolor="#eca36e"] ;
48 -> 56 ;
57 [label=<X<SUB>16</SUB> &le; 24.581<br/>mae = 41934.136<br/>samples = 66<br/>value = 307500.0>, fillcolor="#eda876"] ;
56 -> 57 ;
58 [label=<mae = 36246.1<br/>samples = 50<br/>value = 293500.0>, fillcolor="#eeac7d"] ;
57 -> 58 ;
59 [label=<mae = 34756.375<br/>samples = 16<br/>value = 349000.0>, fillcolor="#ea9a60"] ;
57 -> 59 ;
60 [label=<X<SUB>85</SUB> &le; 22.0<br/>mae = 73118.031<br/>samples = 32<br/>value = 375750.0>, fillcolor="#e89153"] ;
56 -> 60 ;
61 [label=<mae = 24493.588<br/>samples = 17<br/>value = 342643.0>, fillcolor="#eb9c64"] ;
60 -> 61 ;
62 [label=<mae = 101285.133<br/>samples = 15<br/>value = 426000.0>, fillcolor="#e58139"] ;
60 -> 62 ;
}